digraph Tree {
node [shape=box] ;
0 [label="X[10] <= 0.5\ngini = 0.4189\nsamples = 750\nvalue = [526, 224]"] ;
1 [label="X[0] <= 22.5\ngini = 0.4868\nsamples = 461\nvalue = [268, 193]"] ;
0 -> 1 [labeldistance=2.5, labelangle=45, headlabel="True"] ;
2 [label="X[12] <= 0.5\ngini = 0.4436\nsamples = 265\nvalue = [177, 88]"] ;
1 -> 2 ;
3 [label="X[34] <= 0.5\ngini = 0.4241\nsamples = 249\nvalue = [173, 76]"] ;
2 -> 3 ;
4 [label="X[1] <= 10723.5\ngini = 0.4486\nsamples = 209\nvalue = [138, 71]"] ;
3 -> 4 ;
5 [label="X[0] <= 7.5\ngini = 0.4423\nsamples = 206\nvalue = [138, 68]"] ;
4 -> 5 ;
6 [label="X[56] <= 0.5\ngini = 0.1855\nsamples = 29\nvalue = [26, 3]"] ;
5 -> 6 ;
7 [label="X[23] <= 0.5\ngini = 0.0799\nsamples = 24\nvalue = [23, 1]"] ;
6 -> 7 ;
8 [label="gini = 0.0\nsamples = 22\nvalue = [22, 0]"] ;
7 -> 8 ;
9 [label="X[7] <= 0.5\ngini = 0.5\nsamples = 2\nvalue = [1, 1]"] ;
7 -> 9 ;
10 [label="gini = 0.0\nsamples = 1\nvalue = [1, 0]"] ;
9 -> 10 ;
11 [label="gini = 0.0\nsamples = 1\nvalue = [0, 1]"] ;
9 -> 11 ;
12 [label="X[4] <= 40.0\ngini = 0.48\nsamples = 5\nvalue = [3, 2]"] ;
6 -> 12 ;
13 [label="gini = 0.0\nsamples = 3\nvalue = [3, 0]"] ;
12 -> 13 ;
14 [label="gini = 0.0\nsamples = 2\nvalue = [0, 2]"] ;
12 -> 14 ;
15 [label="X[2] <= 1.5\ngini = 0.4647\nsamples = 177\nvalue = [112, 65]"] ;
5 -> 15 ;
16 [label="X[1] <= 2140.0\ngini = 0.3018\nsamples = 27\nvalue = [22, 5]"] ;
15 -> 16 ;
17 [label="X[58] <= 0.5\ngini = 0.32\nsamples = 5\nvalue = [1, 4]"] ;
16 -> 17 ;
18 [label="gini = 0.0\nsamples = 4\nvalue = [0, 4]"] ;
17 -> 18 ;
19 [label="gini = 0.0\nsamples = 1\nvalue = [1, 0]"] ;
17 -> 19 ;
20 [label="X[11] <= 0.5\ngini = 0.0868\nsamples = 22\nvalue = [21, 1]"] ;
16 -> 20 ;
21 [label="gini = 0.0\nsamples = 20\nvalue = [20, 0]"] ;
20 -> 21 ;
22 [label="X[51] <= 0.5\ngini = 0.5\nsamples = 2\nvalue = [1, 1]"] ;
20 -> 22 ;
23 [label="gini = 0.0\nsamples = 1\nvalue = [0, 1]"] ;
22 -> 23 ;
24 [label="gini = 0.0\nsamples = 1\nvalue = [1, 0]"] ;
22 -> 24 ;
25 [label="X[42] <= 0.5\ngini = 0.48\nsamples = 150\nvalue = [90, 60]"] ;
15 -> 25 ;
26 [label="X[1] <= 963.0\ngini = 0.4892\nsamples = 136\nvalue = [78, 58]"] ;
25 -> 26 ;
27 [label="X[1] <= 612.0\ngini = 0.4688\nsamples = 24\nvalue = [9, 15]"] ;
26 -> 27 ;
28 [label="gini = 0.0\nsamples = 4\nvalue = [4, 0]"] ;
27 -> 28 ;
29 [label="X[0] <= 8.5\ngini = 0.375\nsamples = 20\nvalue = [5, 15]"] ;
27 -> 29 ;
30 [label="gini = 0.0\nsamples = 2\nvalue = [2, 0]"] ;
29 -> 30 ;
31 [label="X[24] <= 0.5\ngini = 0.2778\nsamples = 18\nvalue = [3, 15]"] ;
29 -> 31 ;
32 [label="X[52] <= 0.5\ngini = 0.2076\nsamples = 17\nvalue = [2, 15]"] ;
31 -> 32 ;
33 [label="X[39] <= 0.5\ngini = 0.1172\nsamples = 16\nvalue = [1, 15]"] ;
32 -> 33 ;
34 [label="gini = 0.0\nsamples = 13\nvalue = [0, 13]"] ;
33 -> 34 ;
35 [label="X[1] <= 714.0\ngini = 0.4444\nsamples = 3\nvalue = [1, 2]"] ;
33 -> 35 ;
36 [label="gini = 0.0\nsamples = 1\nvalue = [1, 0]"] ;
35 -> 36 ;
37 [label="gini = 0.0\nsamples = 2\nvalue = [0, 2]"] ;
35 -> 37 ;
38 [label="gini = 0.0\nsamples = 1\nvalue = [1, 0]"] ;
32 -> 38 ;
39 [label="gini = 0.0\nsamples = 1\nvalue = [1, 0]"] ;
31 -> 39 ;
40 [label="X[0] <= 20.5\ngini = 0.4731\nsamples = 112\nvalue = [69, 43]"] ;
26 -> 40 ;
41 [label="X[11] <= 0.5\ngini = 0.4619\nsamples = 105\nvalue = [67, 38]"] ;
40 -> 41 ;
42 [label="X[25] <= 0.5\ngini = 0.4467\nsamples = 98\nvalue = [65, 33]"] ;
41 -> 42 ;
43 [label="X[1] <= 1211.5\ngini = 0.4601\nsamples = 92\nvalue = [59, 33]"] ;
42 -> 43 ;
44 [label="X[46] <= 0.5\ngini = 0.2449\nsamples = 14\nvalue = [12, 2]"] ;
43 -> 44 ;
45 [label="X[0] <= 17.0\ngini = 0.142\nsamples = 13\nvalue = [12, 1]"] ;
44 -> 45 ;
46 [label="gini = 0.0\nsamples = 12\nvalue = [12, 0]"] ;
45 -> 46 ;
47 [label="gini = 0.0\nsamples = 1\nvalue = [0, 1]"] ;
45 -> 47 ;
48 [label="gini = 0.0\nsamples = 1\nvalue = [0, 1]"] ;
44 -> 48 ;
49 [label="X[4] <= 22.5\ngini = 0.479\nsamples = 78\nvalue = [47, 31]"] ;
43 -> 49 ;
50 [label="gini = 0.0\nsamples = 4\nvalue = [0, 4]"] ;
49 -> 50 ;
51 [label="X[45] <= 0.5\ngini = 0.4635\nsamples = 74\nvalue = [47, 27]"] ;
49 -> 51 ;
52 [label="X[1] <= 1238.0\ngini = 0.4968\nsamples = 50\nvalue = [27, 23]"] ;
51 -> 52 ;
53 [label="gini = 0.0\nsamples = 3\nvalue = [0, 3]"] ;
52 -> 53 ;
54 [label="X[1] <= 1789.5\ngini = 0.4889\nsamples = 47\nvalue = [27, 20]"] ;
52 -> 54 ;
55 [label="X[39] <= 0.5\ngini = 0.375\nsamples = 20\nvalue = [15, 5]"] ;
54 -> 55 ;
56 [label="X[57] <= 0.5\ngini = 0.2188\nsamples = 16\nvalue = [14, 2]"] ;
55 -> 56 ;
57 [label="X[52] <= 0.5\ngini = 0.5\nsamples = 4\nvalue = [2, 2]"] ;
56 -> 57 ;
58 [label="gini = 0.0\nsamples = 2\nvalue = [2, 0]"] ;
57 -> 58 ;
59 [label="gini = 0.0\nsamples = 2\nvalue = [0, 2]"] ;
57 -> 59 ;
60 [label="gini = 0.0\nsamples = 12\nvalue = [12, 0]"] ;
56 -> 60 ;
61 [label="X[1] <= 1321.0\ngini = 0.375\nsamples = 4\nvalue = [1, 3]"] ;
55 -> 61 ;
62 [label="gini = 0.0\nsamples = 1\nvalue = [1, 0]"] ;
61 -> 62 ;
63 [label="gini = 0.0\nsamples = 3\nvalue = [0, 3]"] ;
61 -> 63 ;
64 [label="X[0] <= 11.0\ngini = 0.4938\nsamples = 27\nvalue = [12, 15]"] ;
54 -> 64 ;
65 [label="gini = 0.0\nsamples = 3\nvalue = [3, 0]"] ;
64 -> 65 ;
66 [label="X[22] <= 0.5\ngini = 0.4688\nsamples = 24\nvalue = [9, 15]"] ;
64 -> 66 ;
67 [label="X[56] <= 0.5\ngini = 0.4339\nsamples = 22\nvalue = [7, 15]"] ;
66 -> 67 ;
68 [label="X[59] <= 0.5\ngini = 0.3599\nsamples = 17\nvalue = [4, 13]"] ;
67 -> 68 ;
69 [label="gini = 0.0\nsamples = 1\nvalue = [1, 0]"] ;
68 -> 69 ;
70 [label="X[44] <= 0.5\ngini = 0.3047\nsamples = 16\nvalue = [3, 13]"] ;
68 -> 70 ;
71 [label="gini = 0.0\nsamples = 9\nvalue = [0, 9]"] ;
70 -> 71 ;
72 [label="X[1] <= 3785.5\ngini = 0.4898\nsamples = 7\nvalue = [3, 4]"] ;
70 -> 72 ;
73 [label="X[4] <= 33.5\ngini = 0.48\nsamples = 5\nvalue = [3, 2]"] ;
72 -> 73 ;
74 [label="gini = 0.0\nsamples = 2\nvalue = [2, 0]"] ;
73 -> 74 ;
75 [label="X[1] <= 2929.0\ngini = 0.4444\nsamples = 3\nvalue = [1, 2]"] ;
73 -> 75 ;
76 [label="gini = 0.0\nsamples = 2\nvalue = [0, 2]"] ;
75 -> 76 ;
77 [label="gini = 0.0\nsamples = 1\nvalue = [1, 0]"] ;
75 -> 77 ;
78 [label="gini = 0.0\nsamples = 2\nvalue = [0, 2]"] ;
72 -> 78 ;
79 [label="X[1] <= 5885.0\ngini = 0.48\nsamples = 5\nvalue = [3, 2]"] ;
67 -> 79 ;
80 [label="gini = 0.0\nsamples = 3\nvalue = [3, 0]"] ;
79 -> 80 ;
81 [label="gini = 0.0\nsamples = 2\nvalue = [0, 2]"] ;
79 -> 81 ;
82 [label="gini = 0.0\nsamples = 2\nvalue = [2, 0]"] ;
66 -> 82 ;
83 [label="X[53] <= 0.5\ngini = 0.2778\nsamples = 24\nvalue = [20, 4]"] ;
51 -> 83 ;
84 [label="X[0] <= 9.5\ngini = 0.2268\nsamples = 23\nvalue = [20, 3]"] ;
83 -> 84 ;
85 [label="gini = 0.0\nsamples = 1\nvalue = [0, 1]"] ;
84 -> 85 ;
86 [label="X[50] <= 0.5\ngini = 0.1653\nsamples = 22\nvalue = [20, 2]"] ;
84 -> 86 ;
87 [label="gini = 0.0\nsamples = 17\nvalue = [17, 0]"] ;
86 -> 87 ;
88 [label="X[26] <= 0.5\ngini = 0.48\nsamples = 5\nvalue = [3, 2]"] ;
86 -> 88 ;
89 [label="gini = 0.0\nsamples = 2\nvalue = [0, 2]"] ;
88 -> 89 ;
90 [label="gini = 0.0\nsamples = 3\nvalue = [3, 0]"] ;
88 -> 90 ;
91 [label="gini = 0.0\nsamples = 1\nvalue = [0, 1]"] ;
83 -> 91 ;
92 [label="gini = 0.0\nsamples = 6\nvalue = [6, 0]"] ;
42 -> 92 ;
93 [label="X[57] <= 0.5\ngini = 0.4082\nsamples = 7\nvalue = [2, 5]"] ;
41 -> 93 ;
94 [label="X[7] <= 0.5\ngini = 0.4444\nsamples = 3\nvalue = [2, 1]"] ;
93 -> 94 ;
95 [label="gini = 0.0\nsamples = 2\nvalue = [2, 0]"] ;
94 -> 95 ;
96 [label="gini = 0.0\nsamples = 1\nvalue = [0, 1]"] ;
94 -> 96 ;
97 [label="gini = 0.0\nsamples = 4\nvalue = [0, 4]"] ;
93 -> 97 ;
98 [label="X[2] <= 3.5\ngini = 0.4082\nsamples = 7\nvalue = [2, 5]"] ;
40 -> 98 ;
99 [label="gini = 0.0\nsamples = 4\nvalue = [0, 4]"] ;
98 -> 99 ;
100 [label="X[5] <= 1.5\ngini = 0.4444\nsamples = 3\nvalue = [2, 1]"] ;
98 -> 100 ;
101 [label="gini = 0.0\nsamples = 2\nvalue = [2, 0]"] ;
100 -> 101 ;
102 [label="gini = 0.0\nsamples = 1\nvalue = [0, 1]"] ;
100 -> 102 ;
103 [label="X[1] <= 2064.0\ngini = 0.2449\nsamples = 14\nvalue = [12, 2]"] ;
25 -> 103 ;
104 [label="gini = 0.0\nsamples = 12\nvalue = [12, 0]"] ;
103 -> 104 ;
105 [label="gini = 0.0\nsamples = 2\nvalue = [0, 2]"] ;
103 -> 105 ;
106 [label="gini = 0.0\nsamples = 3\nvalue = [0, 3]"] ;
4 -> 106 ;
107 [label="X[1] <= 1398.0\ngini = 0.2188\nsamples = 40\nvalue = [35, 5]"] ;
3 -> 107 ;
108 [label="X[4] <= 36.5\ngini = 0.4152\nsamples = 17\nvalue = [12, 5]"] ;
107 -> 108 ;
109 [label="X[7] <= 0.5\ngini = 0.4938\nsamples = 9\nvalue = [4, 5]"] ;
108 -> 109 ;
110 [label="X[16] <= 0.5\ngini = 0.32\nsamples = 5\nvalue = [4, 1]"] ;
109 -> 110 ;
111 [label="gini = 0.0\nsamples = 4\nvalue = [4, 0]"] ;
110 -> 111 ;
112 [label="gini = 0.0\nsamples = 1\nvalue = [0, 1]"] ;
110 -> 112 ;
113 [label="gini = 0.0\nsamples = 4\nvalue = [0, 4]"] ;
109 -> 113 ;
114 [label="gini = 0.0\nsamples = 8\nvalue = [8, 0]"] ;
108 -> 114 ;
115 [label="gini = 0.0\nsamples = 23\nvalue = [23, 0]"] ;
107 -> 115 ;
116 [label="X[20] <= 0.5\ngini = 0.375\nsamples = 16\nvalue = [4, 12]"] ;
2 -> 116 ;
117 [label="X[1] <= 386.0\ngini = 0.1528\nsamples = 12\nvalue = [1, 11]"] ;
116 -> 117 ;
118 [label="gini = 0.0\nsamples = 1\nvalue = [1, 0]"] ;
117 -> 118 ;
119 [label="gini = 0.0\nsamples = 11\nvalue = [0, 11]"] ;
117 -> 119 ;
120 [label="X[38] <= 0.5\ngini = 0.375\nsamples = 4\nvalue = [3, 1]"] ;
116 -> 120 ;
121 [label="gini = 0.0\nsamples = 1\nvalue = [0, 1]"] ;
120 -> 121 ;
122 [label="gini = 0.0\nsamples = 3\nvalue = [3, 0]"] ;
120 -> 122 ;
123 [label="X[26] <= 0.5\ngini = 0.4974\nsamples = 196\nvalue = [91, 105]"] ;
1 -> 123 ;
124 [label="X[13] <= 0.5\ngini = 0.4563\nsamples = 71\nvalue = [46, 25]"] ;
123 -> 124 ;
125 [label="X[28] <= 0.5\ngini = 0.3324\nsamples = 38\nvalue = [30, 8]"] ;
124 -> 125 ;
126 [label="X[1] <= 1370.0\ngini = 0.2571\nsamples = 33\nvalue = [28, 5]"] ;
125 -> 126 ;
127 [label="X[30] <= 0.5\ngini = 0.4444\nsamples = 3\nvalue = [1, 2]"] ;
126 -> 127 ;
128 [label="gini = 0.0\nsamples = 1\nvalue = [1, 0]"] ;
127 -> 128 ;
129 [label="gini = 0.0\nsamples = 2\nvalue = [0, 2]"] ;
127 -> 129 ;
130 [label="X[5] <= 3.5\ngini = 0.18\nsamples = 30\nvalue = [27, 3]"] ;
126 -> 130 ;
131 [label="X[11] <= 0.5\ngini = 0.1284\nsamples = 29\nvalue = [27, 2]"] ;
130 -> 131 ;
132 [label="gini = 0.0\nsamples = 25\nvalue = [25, 0]"] ;
131 -> 132 ;
133 [label="X[1] <= 6176.0\ngini = 0.5\nsamples = 4\nvalue = [2, 2]"] ;
131 -> 133 ;
134 [label="gini = 0.0\nsamples = 2\nvalue = [0, 2]"] ;
133 -> 134 ;
135 [label="gini = 0.0\nsamples = 2\nvalue = [2, 0]"] ;
133 -> 135 ;
136 [label="gini = 0.0\nsamples = 1\nvalue = [0, 1]"] ;
130 -> 136 ;
137 [label="X[43] <= 0.5\ngini = 0.48\nsamples = 5\nvalue = [2, 3]"] ;
125 -> 137 ;
138 [label="gini = 0.0\nsamples = 3\nvalue = [0, 3]"] ;
137 -> 138 ;
139 [label="gini = 0.0\nsamples = 2\nvalue = [2, 0]"] ;
137 -> 139 ;
140 [label="X[27] <= 0.5\ngini = 0.4995\nsamples = 33\nvalue = [16, 17]"] ;
124 -> 140 ;
141 [label="X[7] <= 0.5\ngini = 0.4628\nsamples = 22\nvalue = [14, 8]"] ;
140 -> 141 ;
142 [label="X[1] <= 9724.0\ngini = 0.2604\nsamples = 13\nvalue = [11, 2]"] ;
141 -> 142 ;
143 [label="gini = 0.0\nsamples = 11\nvalue = [11, 0]"] ;
142 -> 143 ;
144 [label="gini = 0.0\nsamples = 2\nvalue = [0, 2]"] ;
142 -> 144 ;
145 [label="X[2] <= 2.5\ngini = 0.4444\nsamples = 9\nvalue = [3, 6]"] ;
141 -> 145 ;
146 [label="gini = 0.0\nsamples = 2\nvalue = [2, 0]"] ;
145 -> 146 ;
147 [label="X[6] <= 1.5\ngini = 0.2449\nsamples = 7\nvalue = [1, 6]"] ;
145 -> 147 ;
148 [label="gini = 0.0\nsamples = 6\nvalue = [0, 6]"] ;
147 -> 148 ;
149 [label="gini = 0.0\nsamples = 1\nvalue = [1, 0]"] ;
147 -> 149 ;
150 [label="X[35] <= 0.5\ngini = 0.2975\nsamples = 11\nvalue = [2, 9]"] ;
140 -> 150 ;
151 [label="gini = 0.0\nsamples = 9\nvalue = [0, 9]"] ;
150 -> 151 ;
152 [label="gini = 0.0\nsamples = 2\nvalue = [2, 0]"] ;
150 -> 152 ;
153 [label="X[0] <= 47.5\ngini = 0.4608\nsamples = 125\nvalue = [45, 80]"] ;
123 -> 153 ;
154 [label="X[16] <= 0.5\ngini = 0.4869\nsamples = 105\nvalue = [44, 61]"] ;
153 -> 154 ;
155 [label="X[50] <= 0.5\ngini = 0.4994\nsamples = 85\nvalue = [41, 44]"] ;
154 -> 155 ;
156 [label="X[1] <= 6725.5\ngini = 0.4975\nsamples = 71\nvalue = [38, 33]"] ;
155 -> 156 ;
157 [label="X[49] <= 0.5\ngini = 0.4826\nsamples = 59\nvalue = [35, 24]"] ;
156 -> 157 ;
158 [label="X[3] <= 1.5\ngini = 0.4082\nsamples = 14\nvalue = [4, 10]"] ;
157 -> 158 ;
159 [label="gini = 0.0\nsamples = 2\nvalue = [2, 0]"] ;
158 -> 159 ;
160 [label="X[5] <= 3.0\ngini = 0.2778\nsamples = 12\nvalue = [2, 10]"] ;
158 -> 160 ;
161 [label="X[33] <= 0.5\ngini = 0.1653\nsamples = 11\nvalue = [1, 10]"] ;
160 -> 161 ;
162 [label="gini = 0.0\nsamples = 8\nvalue = [0, 8]"] ;
161 -> 162 ;
163 [label="X[13] <= 0.5\ngini = 0.4444\nsamples = 3\nvalue = [1, 2]"] ;
161 -> 163 ;
164 [label="gini = 0.0\nsamples = 2\nvalue = [0, 2]"] ;
163 -> 164 ;
165 [label="gini = 0.0\nsamples = 1\nvalue = [1, 0]"] ;
163 -> 165 ;
166 [label="gini = 0.0\nsamples = 1\nvalue = [1, 0]"] ;
160 -> 166 ;
167 [label="X[25] <= 0.5\ngini = 0.4286\nsamples = 45\nvalue = [31, 14]"] ;
157 -> 167 ;
168 [label="X[0] <= 43.5\ngini = 0.3324\nsamples = 38\nvalue = [30, 8]"] ;
167 -> 168 ;
169 [label="X[34] <= 0.5\ngini = 0.2778\nsamples = 36\nvalue = [30, 6]"] ;
168 -> 169 ;
170 [label="X[1] <= 3533.0\ngini = 0.2188\nsamples = 32\nvalue = [28, 4]"] ;
169 -> 170 ;
171 [label="X[32] <= 0.5\ngini = 0.3967\nsamples = 11\nvalue = [8, 3]"] ;
170 -> 171 ;
172 [label="X[3] <= 2.5\ngini = 0.1975\nsamples = 9\nvalue = [8, 1]"] ;
171 -> 172 ;
173 [label="gini = 0.0\nsamples = 1\nvalue = [0, 1]"] ;
172 -> 173 ;
174 [label="gini = 0.0\nsamples = 8\nvalue = [8, 0]"] ;
172 -> 174 ;
175 [label="gini = 0.0\nsamples = 2\nvalue = [0, 2]"] ;
171 -> 175 ;
176 [label="X[4] <= 27.0\ngini = 0.0907\nsamples = 21\nvalue = [20, 1]"] ;
170 -> 176 ;
177 [label="X[4] <= 25.0\ngini = 0.2778\nsamples = 6\nvalue = [5, 1]"] ;
176 -> 177 ;
178 [label="gini = 0.0\nsamples = 4\nvalue = [4, 0]"] ;
177 -> 178 ;
179 [label="X[0] <= 30.0\ngini = 0.5\nsamples = 2\nvalue = [1, 1]"] ;
177 -> 179 ;
180 [label="gini = 0.0\nsamples = 1\nvalue = [1, 0]"] ;
179 -> 180 ;
181 [label="gini = 0.0\nsamples = 1\nvalue = [0, 1]"] ;
179 -> 181 ;
182 [label="gini = 0.0\nsamples = 15\nvalue = [15, 0]"] ;
176 -> 182 ;
183 [label="X[3] <= 1.5\ngini = 0.5\nsamples = 4\nvalue = [2, 2]"] ;
169 -> 183 ;
184 [label="gini = 0.0\nsamples = 2\nvalue = [2, 0]"] ;
183 -> 184 ;
185 [label="gini = 0.0\nsamples = 2\nvalue = [0, 2]"] ;
183 -> 185 ;
186 [label="gini = 0.0\nsamples = 2\nvalue = [0, 2]"] ;
168 -> 186 ;
187 [label="X[58] <= 0.5\ngini = 0.2449\nsamples = 7\nvalue = [1, 6]"] ;
167 -> 187 ;
188 [label="gini = 0.0\nsamples = 1\nvalue = [1, 0]"] ;
187 -> 188 ;
189 [label="gini = 0.0\nsamples = 6\nvalue = [0, 6]"] ;
187 -> 189 ;
190 [label="X[31] <= 0.5\ngini = 0.375\nsamples = 12\nvalue = [3, 9]"] ;
156 -> 190 ;
191 [label="X[5] <= 2.5\ngini = 0.18\nsamples = 10\nvalue = [1, 9]"] ;
190 -> 191 ;
192 [label="gini = 0.0\nsamples = 9\nvalue = [0, 9]"] ;
191 -> 192 ;
193 [label="gini = 0.0\nsamples = 1\nvalue = [1, 0]"] ;
191 -> 193 ;
194 [label="gini = 0.0\nsamples = 2\nvalue = [2, 0]"] ;
190 -> 194 ;
195 [label="X[4] <= 34.0\ngini = 0.3367\nsamples = 14\nvalue = [3, 11]"] ;
155 -> 195 ;
196 [label="X[34] <= 0.5\ngini = 0.1653\nsamples = 11\nvalue = [1, 10]"] ;
195 -> 196 ;
197 [label="gini = 0.0\nsamples = 10\nvalue = [0, 10]"] ;
196 -> 197 ;
198 [label="gini = 0.0\nsamples = 1\nvalue = [1, 0]"] ;
196 -> 198 ;
199 [label="X[44] <= 0.5\ngini = 0.4444\nsamples = 3\nvalue = [2, 1]"] ;
195 -> 199 ;
200 [label="gini = 0.0\nsamples = 2\nvalue = [2, 0]"] ;
199 -> 200 ;
201 [label="gini = 0.0\nsamples = 1\nvalue = [0, 1]"] ;
199 -> 201 ;
202 [label="X[0] <= 41.5\ngini = 0.255\nsamples = 20\nvalue = [3, 17]"] ;
154 -> 202 ;
203 [label="X[6] <= 1.5\ngini = 0.1884\nsamples = 19\nvalue = [2, 17]"] ;
202 -> 203 ;
204 [label="X[1] <= 1204.0\ngini = 0.1107\nsamples = 17\nvalue = [1, 16]"] ;
203 -> 204 ;
205 [label="X[53] <= 0.5\ngini = 0.5\nsamples = 2\nvalue = [1, 1]"] ;
204 -> 205 ;
206 [label="gini = 0.0\nsamples = 1\nvalue = [1, 0]"] ;
205 -> 206 ;
207 [label="gini = 0.0\nsamples = 1\nvalue = [0, 1]"] ;
205 -> 207 ;
208 [label="gini = 0.0\nsamples = 15\nvalue = [0, 15]"] ;
204 -> 208 ;
209 [label="X[56] <= 0.5\ngini = 0.5\nsamples = 2\nvalue = [1, 1]"] ;
203 -> 209 ;
210 [label="gini = 0.0\nsamples = 1\nvalue = [0, 1]"] ;
209 -> 210 ;
211 [label="gini = 0.0\nsamples = 1\nvalue = [1, 0]"] ;
209 -> 211 ;
212 [label="gini = 0.0\nsamples = 1\nvalue = [1, 0]"] ;
202 -> 212 ;
213 [label="X[44] <= 0.5\ngini = 0.095\nsamples = 20\nvalue = [1, 19]"] ;
153 -> 213 ;
214 [label="gini = 0.0\nsamples = 17\nvalue = [0, 17]"] ;
213 -> 214 ;
215 [label="X[37] <= 0.5\ngini = 0.4444\nsamples = 3\nvalue = [1, 2]"] ;
213 -> 215 ;
216 [label="gini = 0.0\nsamples = 1\nvalue = [1, 0]"] ;
215 -> 216 ;
217 [label="gini = 0.0\nsamples = 2\nvalue = [0, 2]"] ;
215 -> 217 ;
218 [label="X[49] <= 0.5\ngini = 0.1915\nsamples = 289\nvalue = [258, 31]"] ;
0 -> 218 [labeldistance=2.5, labelangle=-45, headlabel="False"] ;
219 [label="X[4] <= 43.5\ngini = 0.3803\nsamples = 47\nvalue = [35, 12]"] ;
218 -> 219 ;
220 [label="X[26] <= 0.5\ngini = 0.4444\nsamples = 36\nvalue = [24, 12]"] ;
219 -> 220 ;
221 [label="X[1] <= 10906.0\ngini = 0.2778\nsamples = 18\nvalue = [15, 3]"] ;
220 -> 221 ;
222 [label="X[14] <= 0.5\ngini = 0.2076\nsamples = 17\nvalue = [15, 2]"] ;
221 -> 222 ;
223 [label="X[28] <= 0.5\ngini = 0.1172\nsamples = 16\nvalue = [15, 1]"] ;
222 -> 223 ;
224 [label="gini = 0.0\nsamples = 12\nvalue = [12, 0]"] ;
223 -> 224 ;
225 [label="X[55] <= 0.5\ngini = 0.375\nsamples = 4\nvalue = [3, 1]"] ;
223 -> 225 ;
226 [label="gini = 0.0\nsamples = 3\nvalue = [3, 0]"] ;
225 -> 226 ;
227 [label="gini = 0.0\nsamples = 1\nvalue = [0, 1]"] ;
225 -> 227 ;
228 [label="gini = 0.0\nsamples = 1\nvalue = [0, 1]"] ;
222 -> 228 ;
229 [label="gini = 0.0\nsamples = 1\nvalue = [0, 1]"] ;
221 -> 229 ;
230 [label="X[16] <= 0.5\ngini = 0.5\nsamples = 18\nvalue = [9, 9]"] ;
220 -> 230 ;
231 [label="X[4] <= 32.5\ngini = 0.4592\nsamples = 14\nvalue = [9, 5]"] ;
230 -> 231 ;
232 [label="gini = 0.0\nsamples = 6\nvalue = [6, 0]"] ;
231 -> 232 ;
233 [label="X[55] <= 0.5\ngini = 0.4688\nsamples = 8\nvalue = [3, 5]"] ;
231 -> 233 ;
234 [label="gini = 0.0\nsamples = 3\nvalue = [0, 3]"] ;
233 -> 234 ;
235 [label="X[33] <= 0.5\ngini = 0.48\nsamples = 5\nvalue = [3, 2]"] ;
233 -> 235 ;
236 [label="gini = 0.0\nsamples = 3\nvalue = [3, 0]"] ;
235 -> 236 ;
237 [label="gini = 0.0\nsamples = 2\nvalue = [0, 2]"] ;
235 -> 237 ;
238 [label="gini = 0.0\nsamples = 4\nvalue = [0, 4]"] ;
230 -> 238 ;
239 [label="gini = 0.0\nsamples = 11\nvalue = [11, 0]"] ;
219 -> 239 ;
240 [label="X[15] <= 0.5\ngini = 0.1447\nsamples = 242\nvalue = [223, 19]"] ;
218 -> 240 ;
241 [label="X[5] <= 1.5\ngini = 0.2238\nsamples = 148\nvalue = [129, 19]"] ;
240 -> 241 ;
242 [label="X[14] <= 0.5\ngini = 0.1454\nsamples = 114\nvalue = [105, 9]"] ;
241 -> 242 ;
243 [label="X[37] <= 0.5\ngini = 0.1192\nsamples = 110\nvalue = [103, 7]"] ;
242 -> 243 ;
244 [label="X[23] <= 0.5\ngini = 0.0274\nsamples = 72\nvalue = [71, 1]"] ;
243 -> 244 ;
245 [label="gini = 0.0\nsamples = 68\nvalue = [68, 0]"] ;
244 -> 245 ;
246 [label="X[44] <= 0.5\ngini = 0.375\nsamples = 4\nvalue = [3, 1]"] ;
244 -> 246 ;
247 [label="gini = 0.0\nsamples = 3\nvalue = [3, 0]"] ;
246 -> 247 ;
248 [label="gini = 0.0\nsamples = 1\nvalue = [0, 1]"] ;
246 -> 248 ;
249 [label="X[22] <= 0.5\ngini = 0.2659\nsamples = 38\nvalue = [32, 6]"] ;
243 -> 249 ;
250 [label="X[1] <= 517.0\ngini = 0.2337\nsamples = 37\nvalue = [32, 5]"] ;
249 -> 250 ;
251 [label="gini = 0.0\nsamples = 1\nvalue = [0, 1]"] ;
250 -> 251 ;
252 [label="X[33] <= 0.5\ngini = 0.1975\nsamples = 36\nvalue = [32, 4]"] ;
250 -> 252 ;
253 [label="gini = 0.0\nsamples = 23\nvalue = [23, 0]"] ;
252 -> 253 ;
254 [label="X[1] <= 2976.0\ngini = 0.426\nsamples = 13\nvalue = [9, 4]"] ;
252 -> 254 ;
255 [label="X[16] <= 0.5\ngini = 0.375\nsamples = 12\nvalue = [9, 3]"] ;
254 -> 255 ;
256 [label="X[4] <= 28.5\ngini = 0.1975\nsamples = 9\nvalue = [8, 1]"] ;
255 -> 256 ;
257 [label="gini = 0.0\nsamples = 8\nvalue = [8, 0]"] ;
256 -> 257 ;
258 [label="gini = 0.0\nsamples = 1\nvalue = [0, 1]"] ;
256 -> 258 ;
259 [label="X[1] <= 1375.0\ngini = 0.4444\nsamples = 3\nvalue = [1, 2]"] ;
255 -> 259 ;
260 [label="gini = 0.0\nsamples = 1\nvalue = [1, 0]"] ;
259 -> 260 ;
261 [label="gini = 0.0\nsamples = 2\nvalue = [0, 2]"] ;
259 -> 261 ;
262 [label="gini = 0.0\nsamples = 1\nvalue = [0, 1]"] ;
254 -> 262 ;
263 [label="gini = 0.0\nsamples = 1\nvalue = [0, 1]"] ;
249 -> 263 ;
264 [label="X[51] <= 0.5\ngini = 0.5\nsamples = 4\nvalue = [2, 2]"] ;
242 -> 264 ;
265 [label="gini = 0.0\nsamples = 2\nvalue = [2, 0]"] ;
264 -> 265 ;
266 [label="gini = 0.0\nsamples = 2\nvalue = [0, 2]"] ;
264 -> 266 ;
267 [label="X[3] <= 1.5\ngini = 0.4152\nsamples = 34\nvalue = [24, 10]"] ;
241 -> 267 ;
268 [label="gini = 0.0\nsamples = 2\nvalue = [0, 2]"] ;
267 -> 268 ;
269 [label="X[51] <= 0.5\ngini = 0.375\nsamples = 32\nvalue = [24, 8]"] ;
267 -> 269 ;
270 [label="X[58] <= 0.5\ngini = 0.4444\nsamples = 6\nvalue = [2, 4]"] ;
269 -> 270 ;
271 [label="gini = 0.0\nsamples = 3\nvalue = [0, 3]"] ;
270 -> 271 ;
272 [label="X[26] <= 0.5\ngini = 0.4444\nsamples = 3\nvalue = [2, 1]"] ;
270 -> 272 ;
273 [label="gini = 0.0\nsamples = 1\nvalue = [0, 1]"] ;
272 -> 273 ;
274 [label="gini = 0.0\nsamples = 2\nvalue = [2, 0]"] ;
272 -> 274 ;
275 [label="X[56] <= 0.5\ngini = 0.2604\nsamples = 26\nvalue = [22, 4]"] ;
269 -> 275 ;
276 [label="X[35] <= 0.5\ngini = 0.1588\nsamples = 23\nvalue = [21, 2]"] ;
275 -> 276 ;
277 [label="gini = 0.0\nsamples = 18\nvalue = [18, 0]"] ;
276 -> 277 ;
278 [label="X[45] <= 0.5\ngini = 0.48\nsamples = 5\nvalue = [3, 2]"] ;
276 -> 278 ;
279 [label="gini = 0.0\nsamples = 3\nvalue = [3, 0]"] ;
278 -> 279 ;
280 [label="gini = 0.0\nsamples = 2\nvalue = [0, 2]"] ;
278 -> 280 ;
281 [label="X[58] <= 0.5\ngini = 0.4444\nsamples = 3\nvalue = [1, 2]"] ;
275 -> 281 ;
282 [label="gini = 0.0\nsamples = 1\nvalue = [1, 0]"] ;
281 -> 282 ;
283 [label="gini = 0.0\nsamples = 2\nvalue = [0, 2]"] ;
281 -> 283 ;
284 [label="gini = 0.0\nsamples = 94\nvalue = [94, 0]"] ;
240 -> 284 ;
}